{"params":{"weights":[[[-0.1370470247170788,0.1253270182041993,-0.029819223703052185,-1.2371378556330643,1.826601021708279,0.6970578084180648,-0.29872709930823976,0.46254120412719296,1.0411929963961268,0.14464939045553907,0.5588125423903415,0.22365610298266952,-1.1234011963640282,1.6168878479273303,-0.211679012549779,-0.7181023850285777,0.44924428702696895,0.30205944772190124,0.9254084278507452,-0.953220946751022,0.07529731728990002,-0.009785757883274543,0.23419591723896674,0.876647135385019,-0.31396000521351675,0.39566531253620324,0.39832756519281604],[0.2242476668042345,0.5179836631896416,0.9440844001764707,0.5725313304521648,-0.14871849978254376,1.983862994626435,-0.03305168588178901,0.6824546087952528,0.7200085743665107,0.6050500312183859,-0.0498861946704872,1.498488208724349,0.7277541720531784,-1.3876456097923546,2.003459796175943,0.4588269576621282,0.6008662591914214,1.538267311791896,1.0154122278210858,0.26851515124927555,0.9300683671138217,0.2023704808194009,0.6303720849324632,0.6525815650523193,-0.04388111186258201,0.5779462663099743,0.409334726541505],[-0.41638607181011306,1.0445451793592306,-0.09510004162943544,0.41438077591204736,0.44484470614877575,0.20688795944889854,1.1534768925276315,-0.5724934784671195,-0.5638084072787889,-1.0182584494334215,1.320699124485942,0.7572341420094358,-2.107670895837458,1.8427140301921818,0.9502700543502975,1.1688519031923308,-0.809920460477492,0.022326670034390213,-0.17264703496553319,0.3802053102094693,0.46323596342315565,-0.0949550091706132,0.06245243798218914,-0.08632027694147734,1.0160749207951871,-0.28864400383050026,-0.08231679075904211],[0.178161974679335,-1.5236464246223864,0.3449746658801904,-0.335743198968367,1.0451206142879776,-0.3751994745976065,0.31717726683120107,-1.4301951709789165,0.6000547775128962,0.4142093914659769,-0.5946638980763614,0.5351787829347117,0.34046203436258055,-0.2947143467793839,0.4118384691073531,0.04041730594198039,-0.29440292516431704,0.2346253658137321,-0.335647336375701,0.449076808122308,-0.21424783747764123,1.2844382415063917,-2.430134079058847,1.4823562192477326,-0.18718339630247705,-0.13831976684244457,-0.30790159053450805],[1.333027870614897,-0.6210824592117109,-0.13775380988409927,-0.6174209718503545,1.2393642140961085,0.985548789400697,0.9026051317495248,-0.2539882841094336,0.3737618409255689,0.8467441400600269,0.2373990164830799,0.4656746989091624,-0.45725271520624733,0.9430363055895347,1.2663793771254852,1.1302887683127856,0.001542065692236495,0.39724292530990735,1.0212562633118636,-0.7474519048054411,0.2670917704322377,-1.417610237227074,1.420586213185382,0.8396669831710918,1.0516314524635437,-0.48944121604644036,0.17271289827092523],[-0.4261633334196323,1.6796965162620976,-0.5473868625751962,0.4952347790073133,-0.006082048915403908,0.49790609079305864,0.011848225225968904,1.713974651171026,-0.27480082476769935,0.7774081270742579,-0.7462979911908901,0.43906856222669577,-0.05311873917875627,-1.218775078225837,1.3222114600358295,0.9744442782575304,0.08545279434322499,0.8342010504717154,-0.10441771185541754,2.160399211981291,-0.6097232097937393,0.27705192847632865,0.0634934030301722,0.0039025231096024094,-0.37021818832278874,1.811932797286226,-0.3687827644920818],[-0.06502470425193964,-0.44258353981613,-0.5297147206765416,-0.30296852314319644,0.413550476349159,0.02469958466740515,-1.1851631449967228,0.5747398347799976,-0.005438398954990485,-0.16404389397102156,-0.15210360081430455,-0.5600165230325406,-0.7332123058559625,0.7601662374864631,0.19910533955295848,-0.37119720760238456,-0.011110069013050547,-0.18307136430509843,0.437990237568044,-1.2313642176477095,-0.16703725029381017,1.2667282632900472,-1.6184472589264334,-0.8069467516466257,1.1512702254271237,-0.9420614923372828,-0.5495013544177473],[1.6789572828441743,-0.8898311350747526,-0.5081439466487111,0.788594627967941,-1.461767191823127,0.3599375823127828,0.6291461885367974,-0.6733414100800308,0.45620183188618785,-0.30548695120847374,0.12259708478200393,0.6311462298033742,-1.27271299677811,-0.447195768227226,1.3823808884908937,0.03133391156718621,-0.016847426206498727,0.7290794552470606,-1.3004088666759601,0.9262648992929219,0.10418894000578063,-1.4068294779243984,0.8263123437803787,1.0718479555661646,-1.2007802149747324,0.7846073876788663,0.21761113836800364],[-0.6296854867049702,1.3346718272979199,0.17350632565382954,0.9003065457839641,-0.2093610018054433,-0.008231419708358246,1.0609032944572043,-0.6313081910281525,-0.1579660834397324,0.5029240692545285,0.0794442048880794,-0.12123961462702418,-0.9363222193494737,0.7402976683836378,-0.4240960167215709,0.23607286300062738,-0.49729225892998136,0.017428667946706288,1.257452621311661,-0.733050373373639,0.05660101439719776,1.381236207019654,-0.7048743937780537,-0.34849530261932016,-1.611078697003616,1.0344026876025372,-0.07659236027181121],[0.0880566996902708,0.1704451632342404,0.7849411202319024,0.4018516996906883,-0.4657952878258241,-0.0466331618741835,1.5661155113734813,-0.41345434873510567,-0.036627742815868926,0.024069373151456942,1.3931932056723637,0.4788577788086566,0.12662231847455252,0.3270120126099222,0.2686414626593212,-0.4010460378904156,1.4063795986630931,0.5290682571841261,0.8028297378262177,-0.5987208719938995,0.3291721559980519,0.3874084593987494,1.6905957466219623,-0.27534303984299796,-0.5226340300056286,1.5378337965394342,0.3335271318088189],[-0.2917816751244121,0.8937499819948299,0.46329756519183946,0.8068826657798444,0.17049518307412312,0.29057421052471577,1.6967246331773438,-0.16936009221528525,-0.28598864527551165,-2.0571598919874545,1.7627502519710725,1.1956908510128408,-0.46650494797275743,0.44615940839259793,0.3258639412281441,0.40327361790623867,0.4135907715271709,0.7613412028749537,0.6433262423013357,0.7983574246321711,0.8145449250080721,1.027856919575271,0.0025168709606773346,-0.07815781481693718,1.5018834053452408,-0.4262996826958472,-0.19320872104054793],[-1.2476661359519263,0.8696497108929224,0.8357095963961538,-0.8052558826958024,-0.4646767464735366,1.6817635139326523,0.3542932122064004,-0.3807805536250015,0.5501560576650686,1.5405810694926385,-0.8585574033575897,0.22309173899446647,0.10606961129287165,-0.1764734320376827,0.8495198762834527,0.8944249143144803,-1.2626228125665686,0.11131014637019859,0.1896029534578915,0.017643001851170105,0.598993616540908,-0.21085940532359954,0.4810219044250557,0.5350464110020422,-0.9698679664918389,1.3439164019672436,0.5365092263590857]],[[-0.5096951231026949,1.5556995297452147,0.04809942353029803,1.3424246371662716,0.005074227768546722,-1.3055928488994755,-1.1479815426369566,0.6726408980375622,1.0087076107840012,0.43955507955549017,-0.8130000926421671,-1.2970966011617757],[0.15301384597320875,0.5183660653202591,1.2967498221366234,0.06466940926832995,0.6048895070339444,2.7000285872335588,-0.15789569512672422,-0.22835797598667404,0.7716894148296406,1.2297738444365247,-0.7632945651875472,-2.032738666550948],[1.6997528540165197,0.736867383425283,1.8136802944887578,-0.9217275258427926,-1.3051080723766888,-0.7949379199533799,-0.05293380212095803,0.781018666555867,-0.8703415714922336,0.6247462843238286,0.0188469500685598,2.023770437956565],[-0.011856196633768459,1.364207455983646,-0.09987050569249582,-0.6858831207157308,-1.7890910455362923,1.0674806170904867,0.9231036381100398,2.2294263180861154,0.4541569455157797,-1.313111827956926,1.1129437348763125,0.8631268183449475],[-0.6565750297401026,-1.396190594367845,1.0334965571588828,0.4473782613878141,-0.6160763853171153,-0.16924519146447653,0.15954430942755257,2.418328283308207,0.44170618634512326,-0.13185179189014903,-0.18744748505801662,-1.1913676873864092],[-1.8492343462849403,-1.4935105560296855,1.2672741487453294,0.37810845647494956,1.2279020492901314,0.672069114956752,-0.9846309872591952,-0.9916370854631337,-1.184085769765008,-0.8194217450339661,0.46541770988124176,2.1428518215633865],[0.21596057663116647,-1.1827408484899014,-0.30940867513584824,-1.6965459262229252,0.4139505888326592,-0.5120736223542374,-1.114919345940498,1.6382822979828753,0.6952801526537215,0.5232010299180028,0.1333980079961236,0.5183309076320517],[-0.9333784859600261,0.9390848100094914,-2.476790448351964,0.4602185973004987,2.633553134172772,-0.8693036236638556,2.460405269614029,0.4292504562805407,2.3526852321677985,-1.6477667339385225,2.7292106048186917,0.7985613781722368],[-1.3848885876689412,0.9185893717237973,-1.1496956295314606,1.3930117254359242,-0.1797637971127472,2.3521032346845874,-0.11922779762451556,-0.809466748207317,-0.1659944401169338,-1.4825586388433445,0.533922675098275,-0.36398852125517756],[-1.1129226338531022,1.8137607616735258,1.2358401255580014,2.2570813505847203,-0.46961126126547464,-1.1336955439415903,0.1154996379360763,1.2057264022248628,0.5474224624482068,-0.4222500695350634,-0.9820236584782391,0.3798891064485368],[1.4549215733558518,1.927397616926341,0.8947990381039089,-0.23719384169122748,-0.9652022673009455,0.167431515527104,-0.15268172960282048,1.2575798811559413,-1.5986509376552644,-1.4792840245744427,-1.2316807089468524,0.7681709202087005],[0.4682310032981853,0.5962591608193687,-0.3373208493231242,-0.6864141068972387,-1.3098368735784107,0.04902569288425853,0.808894393900624,0.5269313304816847,-0.8838136747364541,1.2868931405095634,-1.2591021444751656,-0.701643611610972]],[[1.5823182737483394,-2.100582249349112,-1.1440027972711815,0.9604561354056128,3.185398495301741,3.509944705416049,0.5418262407856662,4.668159361398503,2.2470734791246265,-0.059927326473890916,-0.5869142430686595,0.0830753732283359],[-1.6596635345835922,-0.19842440971554384,2.448495575263589,2.0157779524113084,-1.4169883635768885,-1.4372001334724862,2.088461105817116,-3.0314846146813936,-2.968993219056503,-2.179882692946906,2.172391798061055,2.169028677540616],[-1.3911562479596158,3.258364926674318,-2.425682538021509,-3.345928043888227,-0.040776482493882646,-0.2865521612220705,-1.1292683704540063,-1.1824963923375544,-0.40710832286821197,-0.07604600866373995,-2.967945129775218,-0.32135950542052155],[1.583800722550346,-1.0976791110931885,1.9820024288781717,-0.3832293118356247,-0.4762428348551069,-1.753836150319532,-1.6920024518034065,-0.887600602022218,0.9588178359732158,2.1797049425122794,1.5239362447012206,-1.2914409400502742]]],"biases":[[[2.0160123327543977],[-0.29256937596154997],[1.9786502848207255],[-0.1648589529194907],[0.09633696785966119],[-1.2156796405357402],[-0.074429814302257],[1.3425266056780965],[2.1080413192414946],[-0.4456734482556424],[-2.0010687778626006],[0.805080289367277]],[[0.02949730305532887],[-0.2748490887122478],[-0.1827354974678867],[-0.7990966430081953],[-0.8515424604318599],[-1.089249248016676],[-0.3421798363464717],[-0.3082671668559582],[-0.7599532431038062],[-0.05397822082811893],[1.289844716380145],[0.5438233331834714]],[[0.6216982824063537],[0.7661396250736907],[0.7198437678992764],[-0.09860909328683166]]]},"accuracy":0.984}